## MART
## No. of trees = 1000
## No. of leaves = 10
## No. of threshold candidates = 256
## Learning rate = 0.1
## Stop early = 100

<ensemble>
	<tree id="1" weight="0.1">
		<split>
			<feature> 7 </feature>
			<threshold> 2.6265 </threshold>
			<split pos="left">
				<feature> 23 </feature>
				<threshold> 2.0 </threshold>
				<split pos="left">
					<feature> 27 </feature>
					<threshold> 0.0 </threshold>
					<split pos="left">
						<feature> 9 </feature>
						<threshold> 1.0 </threshold>
						<split pos="left">
							<feature> 45 </feature>
							<threshold> 9.0 </threshold>
							<split pos="left">
								<feature> 6 </feature>
								<threshold> 0.0 </threshold>
								<split pos="left">
									<output> 947.3244018554688 </output>
								</split>
								<split pos="right">
									<output> 1781.0 </output>
								</split>
							</split>
							<split pos="right">
								<feature> 20 </feature>
								<threshold> 32.0 </threshold>
								<split pos="left">
									<output> 791.9684448242188 </output>
								</split>
								<split pos="right">
									<output> 375.875 </output>
								</split>
							</split>
						</split>
						<split pos="right">
							<feature> 6 </feature>
							<threshold> 0.0 </threshold>
							<split pos="left">
								<output> 249.8539276123047 </output>
							</split>
							<split pos="right">
								<output> 1994.0 </output>
							</split>
						</split>
					</split>
					<split pos="right">
						<output> 271.97674560546875 </output>
					</split>
				</split>
				<split pos="right">
					<feature> 1 </feature>
					<threshold> 7.0 </threshold>
					<split pos="left">
						<output> 462.4606628417969 </output>
					</split>
					<split pos="right">
						<output> 183.40594482421875 </output>
					</split>
				</split>
			</split>
			<split pos="right">
				<output> 3.2128098011016846 </output>
			</split>
		</split>
	</tree>
	<tree id="2" weight="0.1">
		<split>
			<feature> 7 </feature>
			<threshold> 2.6265 </threshold>
			<split pos="left">
				<feature> 23 </feature>
				<threshold> 2.0 </threshold>
				<split pos="left">
					<feature> 27 </feature>
					<threshold> 0.0 </threshold>
					<split pos="left">
						<feature> 9 </feature>
						<threshold> 1.0 </threshold>
						<split pos="left">
							<feature> 45 </feature>
							<threshold> 9.0 </threshold>
							<split pos="left">
								<feature> 30 </feature>
								<threshold> 7.0 </threshold>
								<split pos="left">
									<output> 828.5582275390625 </output>
								</split>
								<split pos="right">
									<output> 882.2291259765625 </output>
								</split>
							</split>
							<split pos="right">
								<feature> 22 </feature>
								<threshold> 32.0 </threshold>
								<split pos="left">
									<output> 712.76953125 </output>
								</split>
								<split pos="right">
									<output> 338.2875671386719 </output>
								</split>
							</split>
						</split>
						<split pos="right">
							<feature> 19 </feature>
							<threshold> 0.0 </threshold>
							<split pos="left">
								<output> 1466.765869140625 </output>
							</split>
							<split pos="right">
								<output> 207.62371826171875 </output>
							</split>
						</split>
					</split>
					<split pos="right">
						<output> 244.779296875 </output>
					</split>
				</split>
				<split pos="right">
					<feature> 22 </feature>
					<threshold> 9.0 </threshold>
					<split pos="left">
						<output> 416.2146301269531 </output>
					</split>
					<split pos="right">
						<output> 165.065185546875 </output>
					</split>
				</split>
			</split>
			<split pos="right">
				<output> 2.8915226459503174 </output>
			</split>
		</split>
	</tree>
	<tree id="3" weight="0.1">
		<split>
			<feature> 7 </feature>
			<threshold> 2.6265 </threshold>
			<split pos="left">
				<feature> 23 </feature>
				<threshold> 2.0 </threshold>
				<split pos="left">
					<feature> 27 </feature>
					<threshold> 0.0 </threshold>
					<split pos="left">
						<feature> 9 </feature>
						<threshold> 1.0 </threshold>
						<split pos="left">
							<feature> 45 </feature>
							<threshold> 9.0 </threshold>
							<split pos="left">
								<feature> 6 </feature>
								<threshold> 0.0 </threshold>
								<split pos="left">
									<feature> 30 </feature>
									<threshold> 7.0 </threshold>
									<split pos="left">
										<output> 745.69677734375 </output>
									</split>
									<split pos="right">
										<output> 792.1174926757812 </output>
									</split>
								</split>
								<split pos="right">
									<output> 1514.6771240234375 </output>
								</split>
							</split>
							<split pos="right">
								<feature> 32 </feature>
								<threshold> 135.0 </threshold>
								<split pos="left">
									<output> 641.4957885742188 </output>
								</split>
								<split pos="right">
									<output> 304.4588317871094 </output>
								</split>
							</split>
						</split>
						<split pos="right">
							<feature> 6 </feature>
							<threshold> 0.0 </threshold>
							<split pos="left">
								<output> 201.27645874023438 </output>
							</split>
							<split pos="right">
								<output> 1647.9234619140625 </output>
							</split>
						</split>
					</split>
					<split pos="right">
						<output> 220.30101013183594 </output>
					</split>
				</split>
				<split pos="right">
					<output> 254.43804931640625 </output>
				</split>
			</split>
			<split pos="right">
				<output> 2.6023457050323486 </output>
			</split>
		</split>
	</tree>
	<tree id="4" weight="0.1">
		<split>
			<feature> 7 </feature>
			<threshold> 2.6265 </threshold>
			<split pos="left">
				<feature> 23 </feature>
				<threshold> 2.0 </threshold>
				<split pos="left">
					<feature> 27 </feature>
					<threshold> 0.0 </threshold>
					<split pos="left">
						<feature> 15 </feature>
						<threshold> 16.0 </threshold>
						<split pos="left">
							<feature> 45 </feature>
							<threshold> 9.0 </threshold>
							<split pos="left">
								<feature> 15 </feature>
								<threshold> 15.0 </threshold>
								<split pos="left">
									<feature> 6 </feature>
									<threshold> 0.0 </threshold>
									<split pos="left">
										<output> 690.52197265625 </output>
									</split>
									<split pos="right">
										<output> 1363.2093505859375 </output>
									</split>
								</split>
								<split pos="right">
									<output> 443.0476379394531 </output>
								</split>
							</split>
							<split pos="right">
								<feature> 28 </feature>
								<threshold> 30.0 </threshold>
								<split pos="left">
									<output> 577.3438110351562 </output>
								</split>
								<split pos="right">
									<output> 274.0128173828125 </output>
								</split>
							</split>
						</split>
						<split pos="right">
							<feature> 37 </feature>
							<threshold> 23.0 </threshold>
							<split pos="left">
								<output> 1213.162841796875 </output>
							</split>
							<split pos="right">
								<output> 118.19213104248047 </output>
							</split>
						</split>
					</split>
					<split pos="right">
						<output> 198.2709197998047 </output>
					</split>
				</split>
				<split pos="right">
					<output> 228.99441528320312 </output>
				</split>
			</split>
			<split pos="right">
				<output> 2.34210467338562 </output>
			</split>
		</split>
	</tree>
	<tree id="5" weight="0.1">
		<split>
			<feature> 7 </feature>
			<threshold> 2.6265 </threshold>
			<split pos="left">
				<feature> 33 </feature>
				<threshold> 161.0 </threshold>
				<split pos="left">
					<feature> 19 </feature>
					<threshold> 0.0 </threshold>
					<split pos="left">
						<feature> 27 </feature>
						<threshold> 0.0 </threshold>
						<split pos="left">
							<feature> 26 </feature>
							<threshold> 1.0 </threshold>
							<split pos="left">
								<feature> 6 </feature>
								<threshold> 0.0 </threshold>
								<split pos="left">
									<feature> 30 </feature>
									<threshold> 7.0 </threshold>
									<split pos="left">
										<output> 602.0809326171875 </output>
									</split>
									<split pos="right">
										<output> 649.675048828125 </output>
									</split>
								</split>
								<split pos="right">
									<output> 1361.8148193359375 </output>
								</split>
							</split>
							<split pos="right">
								<output> 518.6793823242188 </output>
							</split>
						</split>
						<split pos="right">
							<output> 178.44378662109375 </output>
						</split>
					</split>
					<split pos="right">
						<feature> 29 </feature>
						<threshold> 174.0 </threshold>
						<split pos="left">
							<feature> 13 </feature>
							<threshold> 18.0 </threshold>
							<split pos="left">
								<output> 346.3200378417969 </output>
							</split>
							<split pos="right">
								<output> 108.89433288574219 </output>
							</split>
						</split>
						<split pos="right">
							<output> 708.6880493164062 </output>
						</split>
					</split>
				</split>
				<split pos="right">
					<output> 126.68849182128906 </output>
				</split>
			</split>
			<split pos="right">
				<output> 2.1079468727111816 </output>
			</split>
		</split>
	</tree>
	<tree id="6" weight="0.1">
		<split>
			<feature> 7 </feature>
			<threshold> 2.6265 </threshold>
			<split pos="left">
				<feature> 33 </feature>
				<threshold> 161.0 </threshold>
				<split pos="left">
					<feature> 19 </feature>
					<threshold> 0.0 </threshold>
					<split pos="left">
						<feature> 27 </feature>
						<threshold> 0.0 </threshold>
						<split pos="left">
							<feature> 26 </feature>
							<threshold> 1.0 </threshold>
							<split pos="left">
								<feature> 6 </feature>
								<threshold> 0.0 </threshold>
								<split pos="left">
									<feature> 30 </feature>
									<threshold> 7.0 </threshold>
									<split pos="left">
										<output> 541.8671264648438 </output>
									</split>
									<split pos="right">
										<output> 584.7064819335938 </output>
									</split>
								</split>
								<split pos="right">
									<output> 1225.63330078125 </output>
								</split>
							</split>
							<split pos="right">
								<output> 466.81256103515625 </output>
							</split>
						</split>
						<split pos="right">
							<output> 160.59971618652344 </output>
						</split>
					</split>
					<split pos="right">
						<feature> 29 </feature>
						<threshold> 174.0 </threshold>
						<split pos="left">
							<feature> 13 </feature>
							<threshold> 18.0 </threshold>
							<split pos="left">
								<output> 311.68768310546875 </output>
							</split>
							<split pos="right">
								<output> 98.00502014160156 </output>
							</split>
						</split>
						<split pos="right">
							<output> 637.8193969726562 </output>
						</split>
					</split>
				</split>
				<split pos="right">
					<output> 114.01959228515625 </output>
				</split>
			</split>
			<split pos="right">
				<output> 1.8971362113952637 </output>
			</split>
		</split>
	</tree>
	<tree id="7" weight="0.1">
		<split>
			<feature> 7 </feature>
			<threshold> 2.6265 </threshold>
			<split pos="left">
				<feature> 23 </feature>
				<threshold> 2.0 </threshold>
				<split pos="left">
					<feature> 27 </feature>
					<threshold> 0.0 </threshold>
					<split pos="left">
						<feature> 15 </feature>
						<threshold> 16.0 </threshold>
						<split pos="left">
							<feature> 45 </feature>
							<threshold> 9.0 </threshold>
							<split pos="left">
								<feature> 15 </feature>
								<threshold> 15.0 </threshold>
								<split pos="left">
									<feature> 6 </feature>
									<threshold> 0.0 </threshold>
									<split pos="left">
										<output> 504.21881103515625 </output>
									</split>
									<split pos="right">
										<output> 1092.2376708984375 </output>
									</split>
								</split>
								<split pos="right">
									<output> 332.9421081542969 </output>
								</split>
							</split>
							<split pos="right">
								<feature> 14 </feature>
								<threshold> 0.0 </threshold>
								<split pos="left">
									<output> 338.2005920410156 </output>
								</split>
								<split pos="right">
									<output> 446.8255920410156 </output>
								</split>
							</split>
						</split>
						<split pos="right">
							<feature> 14 </feature>
							<threshold> 2.0 </threshold>
							<split pos="left">
								<output> 85.63726043701172 </output>
							</split>
							<split pos="right">
								<output> 887.2244262695312 </output>
							</split>
						</split>
					</split>
					<split pos="right">
						<output> 144.53948974609375 </output>
					</split>
				</split>
				<split pos="right">
					<output> 162.1143035888672 </output>
				</split>
			</split>
			<split pos="right">
				<output> 1.7074352502822876 </output>
			</split>
		</split>
	</tree>
	<tree id="8" weight="0.1">
		<split>
			<feature> 7 </feature>
			<threshold> 2.6265 </threshold>
			<split pos="left">
				<feature> 33 </feature>
				<threshold> 161.0 </threshold>
				<split pos="left">
					<feature> 27 </feature>
					<threshold> 0.0 </threshold>
					<split pos="left">
						<feature> 19 </feature>
						<threshold> 0.0 </threshold>
						<split pos="left">
							<feature> 18 </feature>
							<threshold> 0.0 </threshold>
							<split pos="left">
								<feature> 6 </feature>
								<threshold> 0.0 </threshold>
								<split pos="left">
									<feature> 39 </feature>
									<threshold> 5.0 </threshold>
									<split pos="left">
										<feature> 39 </feature>
										<threshold> 3.0 </threshold>
										<split pos="left">
											<output> 451.011962890625 </output>
										</split>
										<split pos="right">
											<output> 371.62677001953125 </output>
										</split>
									</split>
									<split pos="right">
										<output> -404.7270202636719 </output>
									</split>
								</split>
								<split pos="right">
									<output> 1014.3474731445312 </output>
								</split>
							</split>
							<split pos="right">
								<output> 315.81878662109375 </output>
							</split>
						</split>
						<split pos="right">
							<feature> 29 </feature>
							<threshold> 174.0 </threshold>
							<split pos="left">
								<output> 187.27879333496094 </output>
							</split>
							<split pos="right">
								<output> 525.0978393554688 </output>
							</split>
						</split>
					</split>
					<split pos="right">
						<output> 130.08578491210938 </output>
					</split>
				</split>
				<split pos="right">
					<output> 83.0267333984375 </output>
				</split>
			</split>
			<split pos="right">
				<output> 1.5366666316986084 </output>
			</split>
		</split>
	</tree>
	<tree id="9" weight="0.1">
		<split>
			<feature> 7 </feature>
			<threshold> 2.6265 </threshold>
			<split pos="left">
				<feature> 33 </feature>
				<threshold> 161.0 </threshold>
				<split pos="left">
					<feature> 13 </feature>
					<threshold> 18.0 </threshold>
					<split pos="left">
						<feature> 27 </feature>
						<threshold> 0.0 </threshold>
						<split pos="left">
							<feature> 23 </feature>
							<threshold> 2.0 </threshold>
							<split pos="left">
								<feature> 26 </feature>
								<threshold> 1.0 </threshold>
								<split pos="left">
									<feature> 29 </feature>
									<threshold> 46.0 </threshold>
									<split pos="left">
										<feature> 29 </feature>
										<threshold> 45.0 </threshold>
										<split pos="left">
											<output> 409.68707275390625 </output>
										</split>
										<split pos="right">
											<output> 356.8750305175781 </output>
										</split>
									</split>
									<split pos="right">
										<output> 439.2711486816406 </output>
									</split>
								</split>
								<split pos="right">
									<output> 339.61236572265625 </output>
								</split>
							</split>
							<split pos="right">
								<output> 224.3565216064453 </output>
							</split>
						</split>
						<split pos="right">
							<output> 117.07705688476562 </output>
						</split>
					</split>
					<split pos="right">
						<feature> 6 </feature>
						<threshold> 0.0 </threshold>
						<split pos="left">
							<output> 70.74532318115234 </output>
						</split>
						<split pos="right">
							<output> 912.9127807617188 </output>
						</split>
					</split>
				</split>
				<split pos="right">
					<output> 74.7240219116211 </output>
				</split>
			</split>
			<split pos="right">
				<output> 1.3830317258834839 </output>
			</split>
		</split>
	</tree>
	<tree id="10" weight="0.1">
		<split>
			<feature> 7 </feature>
			<threshold> 2.6265 </threshold>
			<split pos="left">
				<feature> 33 </feature>
				<threshold> 161.0 </threshold>
				<split pos="left">
					<feature> 13 </feature>
					<threshold> 18.0 </threshold>
					<split pos="left">
						<feature> 27 </feature>
						<threshold> 0.0 </threshold>
						<split pos="left">
							<feature> 23 </feature>
							<threshold> 2.0 </threshold>
							<split pos="left">
								<feature> 18 </feature>
								<threshold> 0.0 </threshold>
								<split pos="left">
									<feature> 39 </feature>
									<threshold> 5.0 </threshold>
									<split pos="left">
										<feature> 31 </feature>
										<threshold> 126.0 </threshold>
										<split pos="left">
											<feature> 45 </feature>
											<threshold> 9.0 </threshold>
											<split pos="left">
												<output> 366.2666931152344 </output>
											</split>
											<split pos="right">
												<output> 311.5777587890625 </output>
											</split>
										</split>
										<split pos="right">
											<output> 472.79766845703125 </output>
										</split>
									</split>
									<split pos="right">
										<output> -398.2155456542969 </output>
									</split>
								</split>
								<split pos="right">
									<output> 257.4112854003906 </output>
								</split>
							</split>
							<split pos="right">
								<output> 201.92086791992188 </output>
							</split>
						</split>
						<split pos="right">
							<output> 105.36933135986328 </output>
						</split>
					</split>
					<split pos="right">
						<output> 92.82295227050781 </output>
					</split>
				</split>
				<split pos="right">
					<output> 67.25175476074219 </output>
				</split>
			</split>
			<split pos="right">
				<output> 1.244726300239563 </output>
			</split>
		</split>
	</tree>
	<tree id="11" weight="0.1">
		<split>
			<feature> 7 </feature>
			<threshold> 2.6265 </threshold>
			<split pos="left">
				<feature> 33 </feature>
				<threshold> 161.0 </threshold>
				<split pos="left">
					<feature> 19 </feature>
					<threshold> 0.0 </threshold>
					<split pos="left">
						<feature> 27 </feature>
						<threshold> 0.0 </threshold>
						<split pos="left">
							<feature> 18 </feature>
							<threshold> 0.0 </threshold>
							<split pos="left">
								<feature> 6 </feature>
								<threshold> 0.0 </threshold>
								<split pos="left">
									<feature> 39 </feature>
									<threshold> 5.0 </threshold>
									<split pos="left">
										<feature> 39 </feature>
										<threshold> 3.0 </threshold>
										<split pos="left">
											<output> 329.99267578125 </output>
										</split>
										<split pos="right">
											<output> 269.3453674316406 </output>
										</split>
									</split>
									<split pos="right">
										<output> -358.39398193359375 </output>
									</split>
								</split>
								<split pos="right">
									<output> 812.3391723632812 </output>
								</split>
							</split>
							<split pos="right">
								<output> 224.53392028808594 </output>
							</split>
						</split>
						<split pos="right">
							<output> 94.83232879638672 </output>
						</split>
					</split>
					<split pos="right">
						<feature> 13 </feature>
						<threshold> 18.0 </threshold>
						<split pos="left">
							<output> 230.4017791748047 </output>
						</split>
						<split pos="right">
							<output> 44.55606460571289 </output>
						</split>
					</split>
				</split>
				<split pos="right">
					<output> 60.52656173706055 </output>
				</split>
			</split>
			<split pos="right">
				<output> 1.1202235221862793 </output>
			</split>
		</split>
	</tree>
	<tree id="12" weight="0.1">
		<split>
			<feature> 7 </feature>
			<threshold> 2.6265 </threshold>
			<split pos="left">
				<feature> 23 </feature>
				<threshold> 2.0 </threshold>
				<split pos="left">
					<feature> 13 </feature>
					<threshold> 18.0 </threshold>
					<split pos="left">
						<feature> 27 </feature>
						<threshold> 0.0 </threshold>
						<split pos="left">
							<feature> 45 </feature>
							<threshold> 9.0 </threshold>
							<split pos="left">
								<feature> 1 </feature>
								<threshold> 1.0 </threshold>
								<split pos="left">
									<output> 264.77288818359375 </output>
								</split>
								<split pos="right">
									<feature> 30 </feature>
									<threshold> 5.0 </threshold>
									<split pos="left">
										<output> 350.1195983886719 </output>
									</split>
									<split pos="right">
										<feature> 30 </feature>
										<threshold> 7.0 </threshold>
										<split pos="left">
											<output> 210.75595092773438 </output>
										</split>
										<split pos="right">
											<output> 319.6100158691406 </output>
										</split>
									</split>
								</split>
							</split>
							<split pos="right">
								<feature> 39 </feature>
								<threshold> 5.0 </threshold>
								<split pos="left">
									<output> 242.72268676757812 </output>
								</split>
								<split pos="right">
									<output> -322.5545959472656 </output>
								</split>
							</split>
						</split>
						<split pos="right">
							<output> 85.3492660522461 </output>
						</split>
					</split>
					<split pos="right">
						<output> 72.6875 </output>
					</split>
				</split>
				<split pos="right">
					<output> 91.01429748535156 </output>
				</split>
			</split>
			<split pos="right">
				<output> 1.0082186460494995 </output>
			</split>
		</split>
	</tree>
	<tree id="13" weight="0.1">
		<split>
			<feature> 7 </feature>
			<threshold> 2.6265 </threshold>
			<split pos="left">
				<feature> 33 </feature>
				<threshold> 161.0 </threshold>
				<split pos="left">
					<feature> 15 </feature>
					<threshold> 15.0 </threshold>
					<split pos="left">
						<feature> 27 </feature>
						<threshold> 0.0 </threshold>
						<split pos="left">
							<feature> 23 </feature>
							<threshold> 2.0 </threshold>
							<split pos="left">
								<feature> 18 </feature>
								<threshold> 0.0 </threshold>
								<split pos="left">
									<feature> 39 </feature>
									<threshold> 5.0 </threshold>
									<split pos="left">
										<feature> 36 </feature>
										<threshold> 103.0 </threshold>
										<split pos="left">
											<feature> 45 </feature>
											<threshold> 9.0 </threshold>
											<split pos="left">
												<output> 268.9825744628906 </output>
											</split>
											<split pos="right">
												<output> 226.2945098876953 </output>
											</split>
										</split>
										<split pos="right">
											<output> 371.70074462890625 </output>
										</split>
									</split>
									<split pos="right">
										<output> -290.29913330078125 </output>
									</split>
								</split>
								<split pos="right">
									<output> 184.39781188964844 </output>
								</split>
							</split>
							<split pos="right">
								<output> 149.5874481201172 </output>
							</split>
						</split>
						<split pos="right">
							<output> 76.8141860961914 </output>
						</split>
					</split>
					<split pos="right">
						<output> 80.37068939208984 </output>
					</split>
				</split>
				<split pos="right">
					<output> 42.49728012084961 </output>
				</split>
			</split>
			<split pos="right">
				<output> 0.9073903560638428 </output>
			</split>
		</split>
	</tree>
	<tree id="14" weight="0.1">
		<split>
			<feature> 7 </feature>
			<threshold> 2.6265 </threshold>
			<split pos="left">
				<feature> 23 </feature>
				<threshold> 5.0 </threshold>
				<split pos="left">
					<feature> 13 </feature>
					<threshold> 18.0 </threshold>
					<split pos="left">
						<feature> 27 </feature>
						<threshold> 0.0 </threshold>
						<split pos="left">
							<feature> 19 </feature>
							<threshold> 3.0 </threshold>
							<split pos="left">
								<feature> 26 </feature>
								<threshold> 1.0 </threshold>
								<split pos="left">
									<feature> 29 </feature>
									<threshold> 46.0 </threshold>
									<split pos="left">
										<feature> 29 </feature>
										<threshold> 45.0 </threshold>
										<split pos="left">
											<output> 243.6261444091797 </output>
										</split>
										<split pos="right">
											<output> 198.27001953125 </output>
										</split>
									</split>
									<split pos="right">
										<output> 267.3055114746094 </output>
									</split>
								</split>
								<split pos="right">
									<output> 196.83663940429688 </output>
								</split>
							</split>
							<split pos="right">
								<output> 130.29844665527344 </output>
							</split>
						</split>
						<split pos="right">
							<output> 69.13288116455078 </output>
						</split>
					</split>
					<split pos="right">
						<feature> 14 </feature>
						<threshold> 2.0 </threshold>
						<split pos="left">
							<output> 22.42711067199707 </output>
						</split>
						<split pos="right">
							<output> 575.4678344726562 </output>
						</split>
					</split>
				</split>
				<split pos="right">
					<output> 18.029253005981445 </output>
				</split>
			</split>
			<split pos="right">
				<output> 0.8166421055793762 </output>
			</split>
		</split>
	</tree>
	<tree id="15" weight="0.1">
		<split>
			<feature> 7 </feature>
			<threshold> 2.6265 </threshold>
			<split pos="left">
				<feature> 33 </feature>
				<threshold> 161.0 </threshold>
				<split pos="left">
					<feature> 15 </feature>
					<threshold> 15.0 </threshold>
					<split pos="left">
						<feature> 27 </feature>
						<threshold> 0.0 </threshold>
						<split pos="left">
							<feature> 19 </feature>
							<threshold> 3.0 </threshold>
							<split pos="left">
								<feature> 18 </feature>
								<threshold> 0.0 </threshold>
								<split pos="left">
									<feature> 6 </feature>
									<threshold> 0.0 </threshold>
									<split pos="left">
										<feature> 39 </feature>
										<threshold> 5.0 </threshold>
										<split pos="left">
											<feature> 1 </feature>
											<threshold> 7.0 </threshold>
											<split pos="left">
												<output> 211.76576232910156 </output>
											</split>
											<split pos="right">
												<output> 308.99383544921875 </output>
											</split>
										</split>
										<split pos="right">
											<output> -280.952880859375 </output>
										</split>
									</split>
									<split pos="right">
										<output> 720.3954467773438 </output>
									</split>
								</split>
								<split pos="right">
									<output> 145.80902099609375 </output>
								</split>
							</split>
							<split pos="right">
								<output> 121.59864044189453 </output>
							</split>
						</split>
						<split pos="right">
							<output> 62.21954345703125 </output>
						</split>
					</split>
					<split pos="right">
						<output> 63.892234802246094 </output>
					</split>
				</split>
				<split pos="right">
					<output> 33.08807373046875 </output>
				</split>
			</split>
			<split pos="right">
				<output> 0.7349787354469299 </output>
			</split>
		</split>
	</tree>
	<tree id="16" weight="0.1">
		<split>
			<feature> 7 </feature>
			<threshold> 2.6265 </threshold>
			<split pos="left">
				<feature> 23 </feature>
				<threshold> 5.0 </threshold>
				<split pos="left">
					<feature> 19 </feature>
					<threshold> 0.0 </threshold>
					<split pos="left">
						<feature> 27 </feature>
						<threshold> 0.0 </threshold>
						<split pos="left">
							<feature> 6 </feature>
							<threshold> 0.0 </threshold>
							<split pos="left">
								<feature> 45 </feature>
								<threshold> 9.0 </threshold>
								<split pos="left">
									<feature> 30 </feature>
									<threshold> 7.0 </threshold>
									<split pos="left">
										<feature> 30 </feature>
										<threshold> 5.0 </threshold>
										<split pos="left">
											<output> 201.76597595214844 </output>
										</split>
										<split pos="right">
											<output> 120.67125701904297 </output>
										</split>
									</split>
									<split pos="right">
										<output> 214.31979370117188 </output>
									</split>
								</split>
								<split pos="right">
									<output> 155.7389373779297 </output>
								</split>
							</split>
							<split pos="right">
								<output> 651.8634643554688 </output>
							</split>
						</split>
						<split pos="right">
							<output> 55.99760818481445 </output>
						</split>
					</split>
					<split pos="right">
						<feature> 13 </feature>
						<threshold> 18.0 </threshold>
						<split pos="left">
							<output> 138.77432250976562 </output>
						</split>
						<split pos="right">
							<output> 13.836825370788574 </output>
						</split>
					</split>
				</split>
				<split pos="right">
					<output> 12.9175386428833 </output>
				</split>
			</split>
			<split pos="right">
				<output> 0.6614825129508972 </output>
			</split>
		</split>
	</tree>
	<tree id="17" weight="0.1">
		<split>
			<feature> 7 </feature>
			<threshold> 2.6265 </threshold>
			<split pos="left">
				<feature> 33 </feature>
				<threshold> 161.0 </threshold>
				<split pos="left">
					<feature> 9 </feature>
					<threshold> 1.0 </threshold>
					<split pos="left">
						<feature> 27 </feature>
						<threshold> 0.0 </threshold>
						<split pos="left">
							<feature> 34 </feature>
							<threshold> 12.0 </threshold>
							<split pos="left">
								<feature> 18 </feature>
								<threshold> 0.0 </threshold>
								<split pos="left">
									<feature> 30 </feature>
									<threshold> 38.0 </threshold>
									<split pos="left">
										<feature> 39 </feature>
										<threshold> 5.0 </threshold>
										<split pos="left">
											<feature> 44 </feature>
											<threshold> 0.01 </threshold>
											<split pos="left">
												<output> 181.76651000976562 </output>
											</split>
											<split pos="right">
												<output> 158.7366943359375 </output>
											</split>
										</split>
										<split pos="right">
											<output> -268.4314880371094 </output>
										</split>
									</split>
									<split pos="right">
										<output> 249.581787109375 </output>
									</split>
								</split>
								<split pos="right">
									<output> 115.76608276367188 </output>
								</split>
							</split>
							<split pos="right">
								<output> 47.382381439208984 </output>
							</split>
						</split>
						<split pos="right">
							<output> 50.397857666015625 </output>
						</split>
					</split>
					<split pos="right">
						<output> 51.919219970703125 </output>
					</split>
				</split>
				<split pos="right">
					<output> 25.77981948852539 </output>
				</split>
			</split>
			<split pos="right">
				<output> 0.5953333973884583 </output>
			</split>
		</split>
	</tree>
	<tree id="18" weight="0.1">
		<split>
			<feature> 7 </feature>
			<threshold> 2.6265 </threshold>
			<split pos="left">
				<feature> 23 </feature>
				<threshold> 5.0 </threshold>
				<split pos="left">
					<feature> 19 </feature>
					<threshold> 0.0 </threshold>
					<split pos="left">
						<feature> 27 </feature>
						<threshold> 0.0 </threshold>
						<split pos="left">
							<feature> 6 </feature>
							<threshold> 0.0 </threshold>
							<split pos="left">
								<feature> 18 </feature>
								<threshold> 0.0 </threshold>
								<split pos="left">
									<feature> 43 </feature>
									<threshold> 1.0 </threshold>
									<split pos="left">
										<feature> 29 </feature>
										<threshold> 368.0 </threshold>
										<split pos="left">
											<feature> 28 </feature>
											<threshold> 7.0 </threshold>
											<split pos="left">
												<output> 158.06288146972656 </output>
											</split>
											<split pos="right">
												<output> 251.2061004638672 </output>
											</split>
										</split>
										<split pos="right">
											<output> -285.37353515625 </output>
										</split>
									</split>
									<split pos="right">
										<output> 120.43079376220703 </output>
									</split>
								</split>
								<split pos="right">
									<output> 97.95366668701172 </output>
								</split>
							</split>
							<split pos="right">
								<output> 581.4851684570312 </output>
							</split>
						</split>
						<split pos="right">
							<output> 45.35807800292969 </output>
						</split>
					</split>
					<split pos="right">
						<output> 74.60198974609375 </output>
					</split>
				</split>
				<split pos="right">
					<output> 9.047795295715332 </output>
				</split>
			</split>
			<split pos="right">
				<output> 0.5358082056045532 </output>
			</split>
		</split>
	</tree>
	<tree id="19" weight="0.1">
		<split>
			<feature> 7 </feature>
			<threshold> 2.6265 </threshold>
			<split pos="left">
				<feature> 23 </feature>
				<threshold> 5.0 </threshold>
				<split pos="left">
					<feature> 13 </feature>
					<threshold> 18.0 </threshold>
					<split pos="left">
						<feature> 27 </feature>
						<threshold> 0.0 </threshold>
						<split pos="left">
							<feature> 19 </feature>
							<threshold> 3.0 </threshold>
							<split pos="left">
								<feature> 6 </feature>
								<threshold> 0.0 </threshold>
								<split pos="left">
									<feature> 26 </feature>
									<threshold> 1.0 </threshold>
									<split pos="left">
										<feature> 1 </feature>
										<threshold> 1.0 </threshold>
										<split pos="left">
											<output> 117.5113525390625 </output>
										</split>
										<split pos="right">
											<feature> 30 </feature>
											<threshold> 5.0 </threshold>
											<split pos="left">
												<output> 187.60598754882812 </output>
											</split>
											<split pos="right">
												<output> 142.71316528320312 </output>
											</split>
										</split>
									</split>
									<split pos="right">
										<output> 115.58062744140625 </output>
									</split>
								</split>
								<split pos="right">
									<output> 602.06005859375 </output>
								</split>
							</split>
							<split pos="right">
								<output> 72.35005950927734 </output>
							</split>
						</split>
						<split pos="right">
							<output> 40.82222366333008 </output>
						</split>
					</split>
					<split pos="right">
						<output> 26.415481567382812 </output>
					</split>
				</split>
				<split pos="right">
					<output> 8.143013000488281 </output>
				</split>
			</split>
			<split pos="right">
				<output> 0.48222196102142334 </output>
			</split>
		</split>
	</tree>
	<tree id="20" weight="0.1">
		<split>
			<feature> 7 </feature>
			<threshold> 2.6265 </threshold>
			<split pos="left">
				<feature> 33 </feature>
				<threshold> 161.0 </threshold>
				<split pos="left">
					<feature> 6 </feature>
					<threshold> 0.0 </threshold>
					<split pos="left">
						<feature> 15 </feature>
						<threshold> 16.0 </threshold>
						<split pos="left">
							<feature> 27 </feature>
							<threshold> 0.0 </threshold>
							<split pos="left">
								<feature> 34 </feature>
								<threshold> 12.0 </threshold>
								<split pos="left">
									<feature> 32 </feature>
									<threshold> 65.0 </threshold>
									<split pos="left">
										<feature> 37 </feature>
										<threshold> 32.0 </threshold>
										<split pos="left">
											<feature> 1 </feature>
											<threshold> 1.0 </threshold>
											<split pos="left">
												<output> 105.76050567626953 </output>
											</split>
											<split pos="right">
												<output> 135.61228942871094 </output>
											</split>
										</split>
										<split pos="right">
											<output> 97.65721893310547 </output>
										</split>
									</split>
									<split pos="right">
										<output> 174.21160888671875 </output>
									</split>
								</split>
								<split pos="right">
									<output> 27.948917388916016 </output>
								</split>
							</split>
							<split pos="right">
								<output> 36.739990234375 </output>
							</split>
						</split>
						<split pos="right">
							<output> 6.480952262878418 </output>
						</split>
					</split>
					<split pos="right">
						<output> 525.98486328125 </output>
					</split>
				</split>
				<split pos="right">
					<output> 17.6409969329834 </output>
				</split>
			</split>
			<split pos="right">
				<output> 0.43400245904922485 </output>
			</split>
		</split>
	</tree>
	<tree id="21" weight="0.1">
		<split>
			<feature> 7 </feature>
			<threshold> 2.6265 </threshold>
			<split pos="left">
				<feature> 23 </feature>
				<threshold> 5.0 </threshold>
				<split pos="left">
					<feature> 6 </feature>
					<threshold> 0.0 </threshold>
					<split pos="left">
						<feature> 13 </feature>
						<threshold> 18.0 </threshold>
						<split pos="left">
							<feature> 27 </feature>
							<threshold> 0.0 </threshold>
							<split pos="left">
								<feature> 34 </feature>
								<threshold> 12.0 </threshold>
								<split pos="left">
									<feature> 22 </feature>
									<threshold> 48.0 </threshold>
									<split pos="left">
										<feature> 8 </feature>
										<threshold> 8.097705 </threshold>
										<split pos="left">
											<feature> 30 </feature>
											<threshold> 5.0 </threshold>
											<split pos="left">
												<output> 123.42130279541016 </output>
											</split>
											<split pos="right">
												<output> 94.6910629272461 </output>
											</split>
										</split>
										<split pos="right">
											<output> 131.38204956054688 </output>
										</split>
									</split>
									<split pos="right">
										<output> -304.3450622558594 </output>
									</split>
								</split>
								<split pos="right">
									<output> 25.15404510498047 </output>
								</split>
							</split>
							<split pos="right">
								<output> 33.06604766845703 </output>
							</split>
						</split>
						<split pos="right">
							<output> 3.495845079421997 </output>
						</split>
					</split>
					<split pos="right">
						<output> 473.3863830566406 </output>
					</split>
				</split>
				<split pos="right">
					<output> 5.564631462097168 </output>
				</split>
			</split>
			<split pos="right">
				<output> 0.39060544967651367 </output>
			</split>
		</split>
	</tree>
	<tree id="22" weight="0.1">
		<split>
			<feature> 7 </feature>
			<threshold> 2.6265 </threshold>
			<split pos="left">
				<feature> 33 </feature>
				<threshold> 161.0 </threshold>
				<split pos="left">
					<feature> 6 </feature>
					<threshold> 0.0 </threshold>
					<split pos="left">
						<feature> 15 </feature>
						<threshold> 16.0 </threshold>
						<split pos="left">
							<feature> 27 </feature>
							<threshold> 0.0 </threshold>
							<split pos="left">
								<feature> 34 </feature>
								<threshold> 12.0 </threshold>
								<split pos="left">
									<feature> 32 </feature>
									<threshold> 65.0 </threshold>
									<split pos="left">
										<feature> 37 </feature>
										<threshold> 25.0 </threshold>
										<split pos="left">
											<feature> 29 </feature>
											<threshold> 46.0 </threshold>
											<split pos="left">
												<output> 95.64527893066406 </output>
											</split>
											<split pos="right">
												<output> 126.81588745117188 </output>
											</split>
										</split>
										<split pos="right">
											<output> 79.41059112548828 </output>
										</split>
									</split>
									<split pos="right">
										<output> 146.02305603027344 </output>
									</split>
								</split>
								<split pos="right">
									<output> 22.638648986816406 </output>
								</split>
							</split>
							<split pos="right">
								<output> 29.759441375732422 </output>
							</split>
						</split>
						<split pos="right">
							<output> 5.483271598815918 </output>
						</split>
					</split>
					<split pos="right">
						<output> 426.0477294921875 </output>
					</split>
				</split>
				<split pos="right">
					<output> 13.620806694030762 </output>
				</split>
			</split>
			<split pos="right">
				<output> 0.3515430688858032 </output>
			</split>
		</split>
	</tree>
	<tree id="23" weight="0.1">
		<split>
			<feature> 7 </feature>
			<threshold> 2.6265 </threshold>
			<split pos="left">
				<feature> 23 </feature>
				<threshold> 5.0 </threshold>
				<split pos="left">
					<feature> 6 </feature>
					<threshold> 0.0 </threshold>
					<split pos="left">
						<feature> 13 </feature>
						<threshold> 18.0 </threshold>
						<split pos="left">
							<feature> 27 </feature>
							<threshold> 0.0 </threshold>
							<split pos="left">
								<feature> 19 </feature>
								<threshold> 3.0 </threshold>
								<split pos="left">
									<feature> 39 </feature>
									<threshold> 5.0 </threshold>
									<split pos="left">
										<feature> 18 </feature>
										<threshold> 0.0 </threshold>
										<split pos="left">
											<feature> 1 </feature>
											<threshold> 1.0 </threshold>
											<split pos="left">
												<output> 73.32332611083984 </output>
											</split>
											<split pos="right">
												<output> 97.74857330322266 </output>
											</split>
										</split>
										<split pos="right">
											<output> 54.760128021240234 </output>
										</split>
									</split>
									<split pos="right">
										<output> -306.68206787109375 </output>
									</split>
								</split>
								<split pos="right">
									<output> 45.705055236816406 </output>
								</split>
							</split>
							<split pos="right">
								<output> 26.78346061706543 </output>
							</split>
						</split>
						<split pos="right">
							<output> 2.5872199535369873 </output>
						</split>
					</split>
					<split pos="right">
						<output> 383.44293212890625 </output>
					</split>
				</split>
				<split pos="right">
					<output> 3.6460824012756348 </output>
				</split>
			</split>
			<split pos="right">
				<output> 0.31638747453689575 </output>
			</split>
		</split>
	</tree>
	<tree id="24" weight="0.1">
		<split>
			<feature> 7 </feature>
			<threshold> 2.6265 </threshold>
			<split pos="left">
				<feature> 33 </feature>
				<threshold> 161.0 </threshold>
				<split pos="left">
					<feature> 6 </feature>
					<threshold> 0.0 </threshold>
					<split pos="left">
						<feature> 9 </feature>
						<threshold> 1.0 </threshold>
						<split pos="left">
							<feature> 27 </feature>
							<threshold> 0.0 </threshold>
							<split pos="left">
								<feature> 29 </feature>
								<threshold> 174.0 </threshold>
								<split pos="left">
									<feature> 28 </feature>
									<threshold> 7.0 </threshold>
									<split pos="left">
										<feature> 16 </feature>
										<threshold> 1.0 </threshold>
										<split pos="left">
											<feature> 30 </feature>
											<threshold> 5.0 </threshold>
											<split pos="left">
												<output> 91.2603988647461 </output>
											</split>
											<split pos="right">
												<output> 72.88908386230469 </output>
											</split>
										</split>
										<split pos="right">
											<output> 119.01266479492188 </output>
										</split>
									</split>
									<split pos="right">
										<output> 35.27151107788086 </output>
									</split>
								</split>
								<split pos="right">
									<output> 133.3212127685547 </output>
								</split>
							</split>
							<split pos="right">
								<output> 24.10515022277832 </output>
							</split>
						</split>
						<split pos="right">
							<output> 9.780905723571777 </output>
						</split>
					</split>
					<split pos="right">
						<output> 345.0986633300781 </output>
					</split>
				</split>
				<split pos="right">
					<output> 10.143847465515137 </output>
				</split>
			</split>
			<split pos="right">
				<output> 0.28475499153137207 </output>
			</split>
		</split>
	</tree>
	<tree id="25" weight="0.1">
		<split>
			<feature> 7 </feature>
			<threshold> 2.6265 </threshold>
			<split pos="left">
				<feature> 23 </feature>
				<threshold> 5.0 </threshold>
				<split pos="left">
					<feature> 6 </feature>
					<threshold> 0.0 </threshold>
					<split pos="left">
						<feature> 13 </feature>
						<threshold> 18.0 </threshold>
						<split pos="left">
							<feature> 27 </feature>
							<threshold> 0.0 </threshold>
							<split pos="left">
								<feature> 39 </feature>
								<threshold> 5.0 </threshold>
								<split pos="left">
									<feature> 19 </feature>
									<threshold> 5.0 </threshold>
									<split pos="left">
										<feature> 34 </feature>
										<threshold> 12.0 </threshold>
										<split pos="left">
											<feature> 8 </feature>
											<threshold> 8.097705 </threshold>
											<split pos="left">
												<output> 67.58241271972656 </output>
											</split>
											<split pos="right">
												<output> 90.14735412597656 </output>
											</split>
										</split>
										<split pos="right">
											<output> 11.988740921020508 </output>
										</split>
									</split>
									<split pos="right">
										<output> -280.8575439453125 </output>
									</split>
								</split>
								<split pos="right">
									<output> -289.3459777832031 </output>
								</split>
							</split>
							<split pos="right">
								<output> 21.69462776184082 </output>
							</split>
						</split>
						<split pos="right">
							<output> 1.3499341011047363 </output>
						</split>
					</split>
					<split pos="right">
						<output> 310.58880615234375 </output>
					</split>
				</split>
				<split pos="right">
					<output> 2.2670862674713135 </output>
				</split>
			</split>
			<split pos="right">
				<output> 0.25627192854881287 </output>
			</split>
		</split>
	</tree>
	<tree id="26" weight="0.1">
		<split>
			<feature> 7 </feature>
			<threshold> 2.6265 </threshold>
			<split pos="left">
				<feature> 23 </feature>
				<threshold> 2.0 </threshold>
				<split pos="left">
					<feature> 1 </feature>
					<threshold> 1.0 </threshold>
					<split pos="left">
						<output> 34.08143997192383 </output>
					</split>
					<split pos="right">
						<feature> 29 </feature>
						<threshold> 45.0 </threshold>
						<split pos="left">
							<output> 105.71917724609375 </output>
						</split>
						<split pos="right">
							<feature> 13 </feature>
							<threshold> 13.0 </threshold>
							<split pos="left">
								<feature> 20 </feature>
								<threshold> 2.0 </threshold>
								<split pos="left">
									<output> 1.3551450967788696 </output>
								</split>
								<split pos="right">
									<feature> 26 </feature>
									<threshold> 1.0 </threshold>
									<split pos="left">
										<output> 80.9469985961914 </output>
									</split>
									<split pos="right">
										<feature> 37 </feature>
										<threshold> 53.0 </threshold>
										<split pos="left">
											<output> 34.25177764892578 </output>
										</split>
										<split pos="right">
											<output> 67.26591491699219 </output>
										</split>
									</split>
								</split>
							</split>
							<split pos="right">
								<output> 91.58171844482422 </output>
							</split>
						</split>
					</split>
				</split>
				<split pos="right">
					<output> 17.007448196411133 </output>
				</split>
			</split>
			<split pos="right">
				<feature> 6 </feature>
				<threshold> 0.0 </threshold>
				<split pos="left">
					<output> -1.8330965042114258 </output>
				</split>
				<split pos="right">
					<output> 997.017822265625 </output>
				</split>
			</split>
		</split>
	</tree>
	<tree id="27" weight="0.1">
		<split>
			<feature> 7 </feature>
			<threshold> 2.6265 </threshold>
			<split pos="left">
				<feature> 33 </feature>
				<threshold> 161.0 </threshold>
				<split pos="left">
					<feature> 13 </feature>
					<threshold> 19.0 </threshold>
					<split pos="left">
						<feature> 15 </feature>
						<threshold> 16.0 </threshold>
						<split pos="left">
							<feature> 27 </feature>
							<threshold> 0.0 </threshold>
							<split pos="left">
								<feature> 29 </feature>
								<threshold> 174.0 </threshold>
								<split pos="left">
									<feature> 1 </feature>
									<threshold> 6.0 </threshold>
									<split pos="left">
										<feature> 44 </feature>
										<threshold> 0.09 </threshold>
										<split pos="left">
											<feature> 30 </feature>
											<threshold> 5.0 </threshold>
											<split pos="left">
												<output> 68.84466552734375 </output>
											</split>
											<split pos="right">
												<output> 52.10961151123047 </output>
											</split>
										</split>
										<split pos="right">
											<output> 89.46607208251953 </output>
										</split>
									</split>
									<split pos="right">
										<output> 23.296476364135742 </output>
									</split>
								</split>
								<split pos="right">
									<output> 108.393798828125 </output>
								</split>
							</split>
							<split pos="right">
								<output> 16.100202560424805 </output>
							</split>
						</split>
						<split pos="right">
							<output> -6.840617656707764 </output>
						</split>
					</split>
					<split pos="right">
						<output> 258.94708251953125 </output>
					</split>
				</split>
				<split pos="right">
					<output> 5.0480265617370605 </output>
				</split>
			</split>
			<split pos="right">
				<output> 0.2075885832309723 </output>
			</split>
		</split>
	</tree>
	<tree id="28" weight="0.1">
		<split>
			<feature> 7 </feature>
			<threshold> 2.6265 </threshold>
			<split pos="left">
				<feature> 33 </feature>
				<threshold> 161.0 </threshold>
				<split pos="left">
					<feature> 13 </feature>
					<threshold> 19.0 </threshold>
					<split pos="left">
						<feature> 15 </feature>
						<threshold> 15.0 </threshold>
						<split pos="left">
							<feature> 27 </feature>
							<threshold> 0.0 </threshold>
							<split pos="left">
								<feature> 39 </feature>
								<threshold> 5.0 </threshold>
								<split pos="left">
									<feature> 31 </feature>
									<threshold> 126.0 </threshold>
									<split pos="left">
										<feature> 28 </feature>
										<threshold> 7.0 </threshold>
										<split pos="left">
											<feature> 8 </feature>
											<threshold> 2.6992354 </threshold>
											<split pos="left">
												<output> 20.253463745117188 </output>
											</split>
											<split pos="right">
												<output> 55.71884536743164 </output>
											</split>
										</split>
										<split pos="right">
											<output> 20.966835021972656 </output>
										</split>
									</split>
									<split pos="right">
										<output> 113.51163482666016 </output>
									</split>
								</split>
								<split pos="right">
									<output> -274.6759338378906 </output>
								</split>
							</split>
							<split pos="right">
								<output> 14.490147590637207 </output>
							</split>
						</split>
						<split pos="right">
							<output> -1.8204458951950073 </output>
						</split>
					</split>
					<split pos="right">
						<output> 233.05239868164062 </output>
					</split>
				</split>
				<split pos="right">
					<output> 4.543226718902588 </output>
				</split>
			</split>
			<split pos="right">
				<output> 0.18683157861232758 </output>
			</split>
		</split>
	</tree>
	<tree id="29" weight="0.1">
		<split>
			<feature> 7 </feature>
			<threshold> 2.6265 </threshold>
			<split pos="left">
				<feature> 23 </feature>
				<threshold> 2.0 </threshold>
				<split pos="left">
					<feature> 1 </feature>
					<threshold> 1.0 </threshold>
					<split pos="left">
						<output> 22.276203155517578 </output>
					</split>
					<split pos="right">
						<feature> 29 </feature>
						<threshold> 45.0 </threshold>
						<split pos="left">
							<output> 82.58830261230469 </output>
						</split>
						<split pos="right">
							<feature> 38 </feature>
							<threshold> 27.0 </threshold>
							<split pos="left">
								<feature> 30 </feature>
								<threshold> 5.0 </threshold>
								<split pos="left">
									<output> 82.5329818725586 </output>
								</split>
								<split pos="right">
									<feature> 15 </feature>
									<threshold> 8.0 </threshold>
									<split pos="left">
										<output> 42.218379974365234 </output>
									</split>
									<split pos="right">
										<feature> 8 </feature>
										<threshold> 1.0796942 </threshold>
										<split pos="left">
											<output> -232.61032104492188 </output>
										</split>
										<split pos="right">
											<output> 9.049537658691406 </output>
										</split>
									</split>
								</split>
							</split>
							<split pos="right">
								<output> 60.68320083618164 </output>
							</split>
						</split>
					</split>
				</split>
				<split pos="right">
					<output> 10.827237129211426 </output>
				</split>
			</split>
			<split pos="right">
				<feature> 6 </feature>
				<threshold> 0.0 </threshold>
				<split pos="left">
					<output> -1.6892322301864624 </output>
				</split>
				<split pos="right">
					<output> 897.276611328125 </output>
				</split>
			</split>
		</split>
	</tree>
	<tree id="30" weight="0.1">
		<split>
			<feature> 6 </feature>
			<threshold> 0.0 </threshold>
			<split pos="left">
				<feature> 7 </feature>
				<threshold> 2.6265 </threshold>
				<split pos="left">
					<feature> 33 </feature>
					<threshold> 161.0 </threshold>
					<split pos="left">
						<feature> 13 </feature>
						<threshold> 18.0 </threshold>
						<split pos="left">
							<feature> 25 </feature>
							<threshold> 0.0 </threshold>
							<split pos="left">
								<feature> 39 </feature>
								<threshold> 5.0 </threshold>
								<split pos="left">
									<feature> 32 </feature>
									<threshold> 65.0 </threshold>
									<split pos="left">
										<feature> 37 </feature>
										<threshold> 25.0 </threshold>
										<split pos="left">
											<feature> 29 </feature>
											<threshold> 46.0 </threshold>
											<split pos="left">
												<output> 40.3895263671875 </output>
											</split>
											<split pos="right">
												<output> 62.45560836791992 </output>
											</split>
										</split>
										<split pos="right">
											<output> 27.029808044433594 </output>
										</split>
									</split>
									<split pos="right">
										<output> 80.01593017578125 </output>
									</split>
								</split>
								<split pos="right">
									<output> -253.2766571044922 </output>
								</split>
							</split>
							<split pos="right">
								<output> -261.1463928222656 </output>
							</split>
						</split>
						<split pos="right">
							<output> -2.797375202178955 </output>
						</split>
					</split>
					<split pos="right">
						<output> 2.047455310821533 </output>
					</split>
				</split>
				<split pos="right">
					<output> -1.5203032493591309 </output>
				</split>
			</split>
			<split pos="right">
				<output> 338.99444580078125 </output>
			</split>
		</split>
	</tree>
	<tree id="31" weight="0.1">
		<split>
			<feature> 6 </feature>
			<threshold> 0.0 </threshold>
			<split pos="left">
				<feature> 7 </feature>
				<threshold> 2.6265 </threshold>
				<split pos="left">
					<feature> 38 </feature>
					<threshold> 123.0 </threshold>
					<split pos="left">
						<feature> 15 </feature>
						<threshold> 8.0 </threshold>
						<split pos="left">
							<feature> 26 </feature>
							<threshold> 1.0 </threshold>
							<split pos="left">
								<output> 52.128074645996094 </output>
							</split>
							<split pos="right">
								<feature> 30 </feature>
								<threshold> 77.0 </threshold>
								<split pos="left">
									<output> 19.979183197021484 </output>
								</split>
								<split pos="right">
									<output> 69.37256622314453 </output>
								</split>
							</split>
						</split>
						<split pos="right">
							<feature> 30 </feature>
							<threshold> 5.0 </threshold>
							<split pos="left">
								<output> 48.55238723754883 </output>
							</split>
							<split pos="right">
								<feature> 30 </feature>
								<threshold> 13.0 </threshold>
								<split pos="left">
									<feature> 8 </feature>
									<threshold> 1.0796942 </threshold>
									<split pos="left">
										<output> -167.8179168701172 </output>
									</split>
									<split pos="right">
										<output> -1.9250279664993286 </output>
									</split>
								</split>
								<split pos="right">
									<output> 25.75518226623535 </output>
								</split>
							</split>
						</split>
					</split>
					<split pos="right">
						<output> -225.43055725097656 </output>
					</split>
				</split>
				<split pos="right">
					<output> -1.3682669401168823 </output>
				</split>
			</split>
			<split pos="right">
				<output> 305.0950012207031 </output>
			</split>
		</split>
	</tree>
	<tree id="32" weight="0.1">
		<split>
			<feature> 6 </feature>
			<threshold> 0.0 </threshold>
			<split pos="left">
				<feature> 7 </feature>
				<threshold> 2.6265 </threshold>
				<split pos="left">
					<feature> 33 </feature>
					<threshold> 161.0 </threshold>
					<split pos="left">
						<feature> 1 </feature>
						<threshold> 1.0 </threshold>
						<split pos="left">
							<output> 15.154025077819824 </output>
						</split>
						<split pos="right">
							<feature> 29 </feature>
							<threshold> 45.0 </threshold>
							<split pos="left">
								<output> 65.28168487548828 </output>
							</split>
							<split pos="right">
								<feature> 13 </feature>
								<threshold> 13.0 </threshold>
								<split pos="left">
									<feature> 15 </feature>
									<threshold> 10.0 </threshold>
									<split pos="left">
										<feature> 30 </feature>
										<threshold> 17.0 </threshold>
										<split pos="left">
											<output> 44.43704605102539 </output>
										</split>
										<split pos="right">
											<feature> 29 </feature>
											<threshold> 174.0 </threshold>
											<split pos="left">
												<output> 18.98678970336914 </output>
											</split>
											<split pos="right">
												<output> 77.0210952758789 </output>
											</split>
										</split>
									</split>
									<split pos="right">
										<output> -12.323514938354492 </output>
									</split>
								</split>
								<split pos="right">
									<output> 46.94037628173828 </output>
								</split>
							</split>
						</split>
					</split>
					<split pos="right">
						<output> -1.0910937786102295 </output>
					</split>
				</split>
				<split pos="right">
					<output> -1.2314453125 </output>
				</split>
			</split>
			<split pos="right">
				<output> 274.58551025390625 </output>
			</split>
		</split>
	</tree>
	<tree id="33" weight="0.1">
		<split>
			<feature> 6 </feature>
			<threshold> 0.0 </threshold>
			<split pos="left">
				<feature> 7 </feature>
				<threshold> 2.6265 </threshold>
				<split pos="left">
					<feature> 39 </feature>
					<threshold> 5.0 </threshold>
					<split pos="left">
						<feature> 23 </feature>
						<threshold> 2.0 </threshold>
						<split pos="left">
							<feature> 1 </feature>
							<threshold> 1.0 </threshold>
							<split pos="left">
								<output> 12.740568161010742 </output>
							</split>
							<split pos="right">
								<feature> 30 </feature>
								<threshold> 5.0 </threshold>
								<split pos="left">
									<output> 60.15501403808594 </output>
								</split>
								<split pos="right">
									<feature> 30 </feature>
									<threshold> 7.0 </threshold>
									<split pos="left">
										<output> -10.83328628540039 </output>
									</split>
									<split pos="right">
										<feature> 26 </feature>
										<threshold> 1.0 </threshold>
										<split pos="left">
											<output> 45.76259994506836 </output>
										</split>
										<split pos="right">
											<feature> 36 </feature>
											<threshold> 80.0 </threshold>
											<split pos="left">
												<output> 15.837129592895508 </output>
											</split>
											<split pos="right">
												<output> 38.9930305480957 </output>
											</split>
										</split>
									</split>
								</split>
							</split>
						</split>
						<split pos="right">
							<output> 4.122921466827393 </output>
						</split>
					</split>
					<split pos="right">
						<output> -203.14328002929688 </output>
					</split>
				</split>
				<split pos="right">
					<output> -1.1082936525344849 </output>
				</split>
			</split>
			<split pos="right">
				<output> 247.126953125 </output>
			</split>
		</split>
	</tree>
	<tree id="34" weight="0.1">
		<split>
			<feature> 6 </feature>
			<threshold> 0.0 </threshold>
			<split pos="left">
				<feature> 7 </feature>
				<threshold> 2.6265 </threshold>
				<split pos="left">
					<feature> 35 </feature>
					<threshold> 200.0 </threshold>
					<split pos="left">
						<feature> 23 </feature>
						<threshold> 5.0 </threshold>
						<split pos="left">
							<feature> 15 </feature>
							<threshold> 16.0 </threshold>
							<split pos="left">
								<feature> 17 </feature>
								<threshold> 2.0 </threshold>
								<split pos="left">
									<feature> 39 </feature>
									<threshold> 5.0 </threshold>
									<split pos="left">
										<feature> 32 </feature>
										<threshold> 65.0 </threshold>
										<split pos="left">
											<feature> 37 </feature>
											<threshold> 25.0 </threshold>
											<split pos="left">
												<output> 31.131132125854492 </output>
											</split>
											<split pos="right">
												<output> 17.619626998901367 </output>
											</split>
										</split>
										<split pos="right">
											<output> 50.43476486206055 </output>
										</split>
									</split>
									<split pos="right">
										<output> -217.33470153808594 </output>
									</split>
								</split>
								<split pos="right">
									<output> -221.03941345214844 </output>
								</split>
							</split>
							<split pos="right">
								<output> -4.697658061981201 </output>
							</split>
						</split>
						<split pos="right">
							<output> -4.78565788269043 </output>
						</split>
					</split>
					<split pos="right">
						<output> -193.2582550048828 </output>
					</split>
				</split>
				<split pos="right">
					<output> -0.9974722862243652 </output>
				</split>
			</split>
			<split pos="right">
				<output> 222.4142608642578 </output>
			</split>
		</split>
	</tree>
	<tree id="35" weight="0.1">
		<split>
			<feature> 6 </feature>
			<threshold> 0.0 </threshold>
			<split pos="left">
				<feature> 7 </feature>
				<threshold> 2.6265 </threshold>
				<split pos="left">
					<feature> 8 </feature>
					<threshold> 3.2390826 </threshold>
					<split pos="left">
						<feature> 30 </feature>
						<threshold> 5.0 </threshold>
						<split pos="left">
							<output> 36.988853454589844 </output>
						</split>
						<split pos="right">
							<feature> 30 </feature>
							<threshold> 6.0 </threshold>
							<split pos="left">
								<output> -259.0725402832031 </output>
							</split>
							<split pos="right">
								<output> -9.159382820129395 </output>
							</split>
						</split>
					</split>
					<split pos="right">
						<feature> 23 </feature>
						<threshold> 2.0 </threshold>
						<split pos="left">
							<feature> 1 </feature>
							<threshold> 1.0 </threshold>
							<split pos="left">
								<output> 11.003769874572754 </output>
							</split>
							<split pos="right">
								<feature> 29 </feature>
								<threshold> 45.0 </threshold>
								<split pos="left">
									<output> 50.1175422668457 </output>
								</split>
								<split pos="right">
									<feature> 38 </feature>
									<threshold> 43.0 </threshold>
									<split pos="left">
										<output> 21.99331283569336 </output>
									</split>
									<split pos="right">
										<output> 52.024139404296875 </output>
									</split>
								</split>
							</split>
						</split>
						<split pos="right">
							<output> 3.337484836578369 </output>
						</split>
					</split>
				</split>
				<split pos="right">
					<output> -0.8977171182632446 </output>
				</split>
			</split>
			<split pos="right">
				<output> 200.17282104492188 </output>
			</split>
		</split>
	</tree>
	<tree id="36" weight="0.1">
		<split>
			<feature> 33 </feature>
			<threshold> 161.0 </threshold>
			<split pos="left">
				<feature> 6 </feature>
				<threshold> 0.0 </threshold>
				<split pos="left">
					<feature> 1 </feature>
					<threshold> 1.0 </threshold>
					<split pos="left">
						<output> 6.624180316925049 </output>
					</split>
					<split pos="right">
						<feature> 30 </feature>
						<threshold> 5.0 </threshold>
						<split pos="left">
							<output> 47.09306716918945 </output>
						</split>
						<split pos="right">
							<feature> 30 </feature>
							<threshold> 7.0 </threshold>
							<split pos="left">
								<feature> 8 </feature>
								<threshold> 1.0796942 </threshold>
								<split pos="left">
									<output> -233.165283203125 </output>
								</split>
								<split pos="right">
									<output> -5.181929111480713 </output>
								</split>
							</split>
							<split pos="right">
								<feature> 26 </feature>
								<threshold> 0.0 </threshold>
								<split pos="left">
									<output> 42.16275405883789 </output>
								</split>
								<split pos="right">
									<feature> 33 </feature>
									<threshold> 113.0 </threshold>
									<split pos="left">
										<feature> 28 </feature>
										<threshold> 7.0 </threshold>
										<split pos="left">
											<output> 21.118080139160156 </output>
										</split>
										<split pos="right">
											<output> 4.406691551208496 </output>
										</split>
									</split>
									<split pos="right">
										<output> 62.76634216308594 </output>
									</split>
								</split>
							</split>
						</split>
					</split>
				</split>
				<split pos="right">
					<output> 180.15554809570312 </output>
				</split>
			</split>
			<split pos="right">
				<output> -2.2309160232543945 </output>
			</split>
		</split>
	</tree>
	<tree id="37" weight="0.1">
		<split>
			<feature> 33 </feature>
			<threshold> 161.0 </threshold>
			<split pos="left">
				<feature> 6 </feature>
				<threshold> 0.0 </threshold>
				<split pos="left">
					<feature> 7 </feature>
					<threshold> 2.6265 </threshold>
					<split pos="left">
						<feature> 13 </feature>
						<threshold> 19.0 </threshold>
						<split pos="left">
							<feature> 15 </feature>
							<threshold> 16.0 </threshold>
							<split pos="left">
								<feature> 17 </feature>
								<threshold> 2.0 </threshold>
								<split pos="left">
									<feature> 39 </feature>
									<threshold> 5.0 </threshold>
									<split pos="left">
										<feature> 32 </feature>
										<threshold> 65.0 </threshold>
										<split pos="left">
											<feature> 37 </feature>
											<threshold> 25.0 </threshold>
											<split pos="left">
												<output> 23.513151168823242 </output>
											</split>
											<split pos="right">
												<output> 12.181709289550781 </output>
											</split>
										</split>
										<split pos="right">
											<output> 46.96200180053711 </output>
										</split>
									</split>
									<split pos="right">
										<output> -195.12596130371094 </output>
									</split>
								</split>
								<split pos="right">
									<output> -198.68194580078125 </output>
								</split>
							</split>
							<split pos="right">
								<output> -11.047772407531738 </output>
							</split>
						</split>
						<split pos="right">
							<output> 173.96145629882812 </output>
						</split>
					</split>
					<split pos="right">
						<output> 0.18206658959388733 </output>
					</split>
				</split>
				<split pos="right">
					<output> 162.13998413085938 </output>
				</split>
			</split>
			<split pos="right">
				<output> -2.0078155994415283 </output>
			</split>
		</split>
	</tree>
	<tree id="38" weight="0.1">
		<split>
			<feature> 33 </feature>
			<threshold> 161.0 </threshold>
			<split pos="left">
				<feature> 33 </feature>
				<threshold> 113.0 </threshold>
				<split pos="left">
					<feature> 30 </feature>
					<threshold> 5.0 </threshold>
					<split pos="left">
						<output> 25.47502899169922 </output>
					</split>
					<split pos="right">
						<feature> 30 </feature>
						<threshold> 7.0 </threshold>
						<split pos="left">
							<feature> 8 </feature>
							<threshold> 1.0796942 </threshold>
							<split pos="left">
								<output> -212.2000732421875 </output>
							</split>
							<split pos="right">
								<output> -6.826198101043701 </output>
							</split>
						</split>
						<split pos="right">
							<feature> 1 </feature>
							<threshold> 1.0 </threshold>
							<split pos="left">
								<output> -3.26385235786438 </output>
							</split>
							<split pos="right">
								<feature> 26 </feature>
								<threshold> 0.0 </threshold>
								<split pos="left">
									<output> 35.25012969970703 </output>
								</split>
								<split pos="right">
									<feature> 34 </feature>
									<threshold> 2.0 </threshold>
									<split pos="left">
										<output> 18.8658390045166 </output>
									</split>
									<split pos="right">
										<feature> 32 </feature>
										<threshold> 53.0 </threshold>
										<split pos="left">
											<output> 16.370861053466797 </output>
										</split>
										<split pos="right">
											<output> -3.632357597351074 </output>
										</split>
									</split>
								</split>
							</split>
						</split>
					</split>
				</split>
				<split pos="right">
					<output> 75.23880767822266 </output>
				</split>
			</split>
			<split pos="right">
				<output> -1.8070311546325684 </output>
			</split>
		</split>
	</tree>
	<tree id="39" weight="0.1">
		<split>
			<feature> 6 </feature>
			<threshold> 0.0 </threshold>
			<split pos="left">
				<feature> 36 </feature>
				<threshold> 127.0 </threshold>
				<split pos="left">
					<feature> 1 </feature>
					<threshold> 1.0 </threshold>
					<split pos="left">
						<output> 4.013210296630859 </output>
					</split>
					<split pos="right">
						<feature> 30 </feature>
						<threshold> 5.0 </threshold>
						<split pos="left">
							<output> 37.492733001708984 </output>
						</split>
						<split pos="right">
							<feature> 30 </feature>
							<threshold> 7.0 </threshold>
							<split pos="left">
								<feature> 8 </feature>
								<threshold> 1.0796942 </threshold>
								<split pos="left">
									<output> -190.9800567626953 </output>
								</split>
								<split pos="right">
									<output> -6.14357852935791 </output>
								</split>
							</split>
							<split pos="right">
								<feature> 26 </feature>
								<threshold> 0.0 </threshold>
								<split pos="left">
									<output> 32.05953598022461 </output>
								</split>
								<split pos="right">
									<feature> 32 </feature>
									<threshold> 65.0 </threshold>
									<split pos="left">
										<feature> 28 </feature>
										<threshold> 7.0 </threshold>
										<split pos="left">
											<output> 14.749855041503906 </output>
										</split>
										<split pos="right">
											<output> 2.329150438308716 </output>
										</split>
									</split>
									<split pos="right">
										<output> 35.36964797973633 </output>
									</split>
								</split>
							</split>
						</split>
					</split>
				</split>
				<split pos="right">
					<output> -0.6169231534004211 </output>
				</split>
			</split>
			<split pos="right">
				<output> 141.92889404296875 </output>
			</split>
		</split>
	</tree>
	<tree id="40" weight="0.1">
		<split>
			<feature> 6 </feature>
			<threshold> 0.0 </threshold>
			<split pos="left">
				<feature> 7 </feature>
				<threshold> 2.6265 </threshold>
				<split pos="left">
					<feature> 38 </feature>
					<threshold> 123.0 </threshold>
					<split pos="left">
						<feature> 15 </feature>
						<threshold> 8.0 </threshold>
						<split pos="left">
							<feature> 39 </feature>
							<threshold> 5.0 </threshold>
							<split pos="left">
								<feature> 26 </feature>
								<threshold> 0.0 </threshold>
								<split pos="left">
									<output> 28.730314254760742 </output>
								</split>
								<split pos="right">
									<output> 15.189020156860352 </output>
								</split>
							</split>
							<split pos="right">
								<output> -175.1884307861328 </output>
							</split>
						</split>
						<split pos="right">
							<feature> 1 </feature>
							<threshold> 1.0 </threshold>
							<split pos="left">
								<output> -6.5032525062561035 </output>
							</split>
							<split pos="right">
								<feature> 30 </feature>
								<threshold> 5.0 </threshold>
								<split pos="left">
									<output> 33.74350357055664 </output>
								</split>
								<split pos="right">
									<feature> 1 </feature>
									<threshold> 2.0 </threshold>
									<split pos="left">
										<output> -7.22315788269043 </output>
									</split>
									<split pos="right">
										<output> 11.737449645996094 </output>
									</split>
								</split>
							</split>
						</split>
					</split>
					<split pos="right">
						<output> -172.3502197265625 </output>
					</split>
				</split>
				<split pos="right">
					<output> -0.7251625657081604 </output>
				</split>
			</split>
			<split pos="right">
				<output> 127.73600006103516 </output>
			</split>
		</split>
	</tree>
	<tree id="41" weight="0.1">
		<split>
			<feature> 6 </feature>
			<threshold> 0.0 </threshold>
			<split pos="left">
				<feature> 28 </feature>
				<threshold> 7.0 </threshold>
				<split pos="left">
					<feature> 15 </feature>
					<threshold> 8.0 </threshold>
					<split pos="left">
						<output> 19.366313934326172 </output>
					</split>
					<split pos="right">
						<feature> 1 </feature>
						<threshold> 1.0 </threshold>
						<split pos="left">
							<output> -3.1041014194488525 </output>
						</split>
						<split pos="right">
							<feature> 30 </feature>
							<threshold> 5.0 </threshold>
							<split pos="left">
								<output> 30.369150161743164 </output>
							</split>
							<split pos="right">
								<feature> 1 </feature>
								<threshold> 2.0 </threshold>
								<split pos="left">
									<feature> 8 </feature>
									<threshold> 1.0796942 </threshold>
									<split pos="left">
										<output> -132.12802124023438 </output>
									</split>
									<split pos="right">
										<output> -3.1237733364105225 </output>
									</split>
								</split>
								<split pos="right">
									<output> 18.844684600830078 </output>
								</split>
							</split>
						</split>
					</split>
				</split>
				<split pos="right">
					<feature> 1 </feature>
					<threshold> 1.0 </threshold>
					<split pos="left">
						<output> -200.0502471923828 </output>
					</split>
					<split pos="right">
						<feature> 8 </feature>
						<threshold> 14.036026 </threshold>
						<split pos="left">
							<output> -0.3898621201515198 </output>
						</split>
						<split pos="right">
							<output> 27.028846740722656 </output>
						</split>
					</split>
				</split>
			</split>
			<split pos="right">
				<output> 114.96240234375 </output>
			</split>
		</split>
	</tree>
	<tree id="42" weight="0.1">
		<split>
			<feature> 6 </feature>
			<threshold> 0.0 </threshold>
			<split pos="left">
				<feature> 31 </feature>
				<threshold> 161.0 </threshold>
				<split pos="left">
					<feature> 13 </feature>
					<threshold> 19.0 </threshold>
					<split pos="left">
						<feature> 15 </feature>
						<threshold> 8.0 </threshold>
						<split pos="left">
							<output> 15.577982902526855 </output>
						</split>
						<split pos="right">
							<feature> 1 </feature>
							<threshold> 1.0 </threshold>
							<split pos="left">
								<output> -2.7936887741088867 </output>
							</split>
							<split pos="right">
								<feature> 30 </feature>
								<threshold> 5.0 </threshold>
								<split pos="left">
									<output> 27.332250595092773 </output>
								</split>
								<split pos="right">
									<feature> 33 </feature>
									<threshold> 69.0 </threshold>
									<split pos="left">
										<feature> 32 </feature>
										<threshold> 58.0 </threshold>
										<split pos="left">
											<feature> 8 </feature>
											<threshold> 1.0796942 </threshold>
											<split pos="left">
												<output> -58.68655776977539 </output>
											</split>
											<split pos="right">
												<output> -0.2862287759780884 </output>
											</split>
										</split>
										<split pos="right">
											<output> 157.63670349121094 </output>
										</split>
									</split>
									<split pos="right">
										<output> 18.485567092895508 </output>
									</split>
								</split>
							</split>
						</split>
					</split>
					<split pos="right">
						<output> 146.77613830566406 </output>
					</split>
				</split>
				<split pos="right">
					<output> -0.8014507293701172 </output>
				</split>
			</split>
			<split pos="right">
				<output> 103.46617126464844 </output>
			</split>
		</split>
	</tree>
	<tree id="43" weight="0.1">
		<split>
			<feature> 33 </feature>
			<threshold> 161.0 </threshold>
			<split pos="left">
				<feature> 33 </feature>
				<threshold> 113.0 </threshold>
				<split pos="left">
					<feature> 30 </feature>
					<threshold> 5.0 </threshold>
					<split pos="left">
						<output> 15.637916564941406 </output>
					</split>
					<split pos="right">
						<feature> 35 </feature>
						<threshold> 27.0 </threshold>
						<split pos="left">
							<output> 18.7340145111084 </output>
						</split>
						<split pos="right">
							<feature> 1 </feature>
							<threshold> 2.0 </threshold>
							<split pos="left">
								<feature> 8 </feature>
								<threshold> 1.0796942 </threshold>
								<split pos="left">
									<output> -85.70799255371094 </output>
								</split>
								<split pos="right">
									<feature> 8 </feature>
									<threshold> 9.1774 </threshold>
									<split pos="left">
										<output> -2.7049124240875244 </output>
									</split>
									<split pos="right">
										<output> 17.314115524291992 </output>
									</split>
								</split>
							</split>
							<split pos="right">
								<feature> 28 </feature>
								<threshold> 7.0 </threshold>
								<split pos="left">
									<feature> 4 </feature>
									<threshold> 0.0 </threshold>
									<split pos="left">
										<output> 13.012693405151367 </output>
									</split>
									<split pos="right">
										<output> 89.0158920288086 </output>
									</split>
								</split>
								<split pos="right">
									<output> 0.08705519884824753 </output>
								</split>
							</split>
						</split>
					</split>
				</split>
				<split pos="right">
					<output> 60.65275955200195 </output>
				</split>
			</split>
			<split pos="right">
				<output> -1.6777194738388062 </output>
			</split>
		</split>
	</tree>
	<tree id="44" weight="0.1">
		<split>
			<feature> 6 </feature>
			<threshold> 0.0 </threshold>
			<split pos="left">
				<feature> 28 </feature>
				<threshold> 7.0 </threshold>
				<split pos="left">
					<feature> 13 </feature>
					<threshold> 19.0 </threshold>
					<split pos="left">
						<feature> 15 </feature>
						<threshold> 8.0 </threshold>
						<split pos="left">
							<output> 14.312030792236328 </output>
						</split>
						<split pos="right">
							<feature> 1 </feature>
							<threshold> 1.0 </threshold>
							<split pos="left">
								<output> -2.716830015182495 </output>
							</split>
							<split pos="right">
								<feature> 30 </feature>
								<threshold> 5.0 </threshold>
								<split pos="left">
									<output> 23.035194396972656 </output>
								</split>
								<split pos="right">
									<feature> 38 </feature>
									<threshold> 27.0 </threshold>
									<split pos="left">
										<feature> 8 </feature>
										<threshold> 1.0796942 </threshold>
										<split pos="left">
											<output> -104.47575378417969 </output>
										</split>
										<split pos="right">
											<output> -2.587625026702881 </output>
										</split>
									</split>
									<split pos="right">
										<output> 13.399069786071777 </output>
									</split>
								</split>
							</split>
						</split>
					</split>
					<split pos="right">
						<output> 123.19692993164062 </output>
					</split>
				</split>
				<split pos="right">
					<feature> 1 </feature>
					<threshold> 2.0 </threshold>
					<split pos="left">
						<output> -179.79730224609375 </output>
					</split>
					<split pos="right">
						<output> 0.5252715349197388 </output>
					</split>
				</split>
			</split>
			<split pos="right">
				<output> 90.86547088623047 </output>
			</split>
		</split>
	</tree>
	<tree id="45" weight="0.1">
		<split>
			<feature> 6 </feature>
			<threshold> 0.0 </threshold>
			<split pos="left">
				<feature> 28 </feature>
				<threshold> 7.0 </threshold>
				<split pos="left">
					<feature> 13 </feature>
					<threshold> 19.0 </threshold>
					<split pos="left">
						<feature> 15 </feature>
						<threshold> 8.0 </threshold>
						<split pos="left">
							<output> 12.880841255187988 </output>
						</split>
						<split pos="right">
							<feature> 1 </feature>
							<threshold> 1.0 </threshold>
							<split pos="left">
								<output> -2.4451496601104736 </output>
							</split>
							<split pos="right">
								<feature> 30 </feature>
								<threshold> 5.0 </threshold>
								<split pos="left">
									<output> 20.73169708251953 </output>
								</split>
								<split pos="right">
									<feature> 38 </feature>
									<threshold> 27.0 </threshold>
									<split pos="left">
										<feature> 8 </feature>
										<threshold> 1.0796942 </threshold>
										<split pos="left">
											<output> -94.02818298339844 </output>
										</split>
										<split pos="right">
											<output> -2.3288652896881104 </output>
										</split>
									</split>
									<split pos="right">
										<output> 12.059172630310059 </output>
									</split>
								</split>
							</split>
						</split>
					</split>
					<split pos="right">
						<output> 110.87723541259766 </output>
					</split>
				</split>
				<split pos="right">
					<feature> 1 </feature>
					<threshold> 2.0 </threshold>
					<split pos="left">
						<output> -161.8175811767578 </output>
					</split>
					<split pos="right">
						<output> 0.4727432429790497 </output>
					</split>
				</split>
			</split>
			<split pos="right">
				<output> 81.77892303466797 </output>
			</split>
		</split>
	</tree>
	<tree id="46" weight="0.1">
		<split>
			<feature> 8 </feature>
			<threshold> 9.1774 </threshold>
			<split pos="left">
				<feature> 30 </feature>
				<threshold> 5.0 </threshold>
				<split pos="left">
					<output> 12.085614204406738 </output>
				</split>
				<split pos="right">
					<feature> 8 </feature>
					<threshold> 2.6992354 </threshold>
					<split pos="left">
						<feature> 30 </feature>
						<threshold> 6.0 </threshold>
						<split pos="left">
							<output> -123.65709686279297 </output>
						</split>
						<split pos="right">
							<output> -11.487482070922852 </output>
						</split>
					</split>
					<split pos="right">
						<feature> 35 </feature>
						<threshold> 24.0 </threshold>
						<split pos="left">
							<output> 22.121225357055664 </output>
						</split>
						<split pos="right">
							<feature> 20 </feature>
							<threshold> 2.0 </threshold>
							<split pos="left">
								<output> -5.495018482208252 </output>
							</split>
							<split pos="right">
								<feature> 29 </feature>
								<threshold> 161.0 </threshold>
								<split pos="left">
									<feature> 38 </feature>
									<threshold> 30.0 </threshold>
									<split pos="left">
										<output> 3.834437370300293 </output>
									</split>
									<split pos="right">
										<output> 11.393824577331543 </output>
									</split>
								</split>
								<split pos="right">
									<output> -1.2732579708099365 </output>
								</split>
							</split>
						</split>
					</split>
				</split>
			</split>
			<split pos="right">
				<feature> 6 </feature>
				<threshold> 0.0 </threshold>
				<split pos="left">
					<output> 13.160181999206543 </output>
				</split>
				<split pos="right">
					<output> 142.50265502929688 </output>
				</split>
			</split>
		</split>
	</tree>
	<tree id="47" weight="0.1">
		<split>
			<feature> 8 </feature>
			<threshold> 9.1774 </threshold>
			<split pos="left">
				<feature> 30 </feature>
				<threshold> 5.0 </threshold>
				<split pos="left">
					<output> 10.877050399780273 </output>
				</split>
				<split pos="right">
					<feature> 8 </feature>
					<threshold> 2.6992354 </threshold>
					<split pos="left">
						<feature> 30 </feature>
						<threshold> 6.0 </threshold>
						<split pos="left">
							<output> -111.2913818359375 </output>
						</split>
						<split pos="right">
							<output> -10.338736534118652 </output>
						</split>
					</split>
					<split pos="right">
						<feature> 38 </feature>
						<threshold> 7.0 </threshold>
						<split pos="left">
							<output> 17.39653778076172 </output>
						</split>
						<split pos="right">
							<feature> 20 </feature>
							<threshold> 2.0 </threshold>
							<split pos="left">
								<output> -6.016389846801758 </output>
							</split>
							<split pos="right">
								<feature> 29 </feature>
								<threshold> 161.0 </threshold>
								<split pos="left">
									<feature> 13 </feature>
									<threshold> 17.0 </threshold>
									<split pos="left">
										<output> 5.690038204193115 </output>
									</split>
									<split pos="right">
										<output> 98.65013122558594 </output>
									</split>
								</split>
								<split pos="right">
									<output> -1.1459335088729858 </output>
								</split>
							</split>
						</split>
					</split>
				</split>
			</split>
			<split pos="right">
				<feature> 6 </feature>
				<threshold> 0.0 </threshold>
				<split pos="left">
					<output> 11.84416675567627 </output>
				</split>
				<split pos="right">
					<output> 128.2523956298828 </output>
				</split>
			</split>
		</split>
	</tree>
	<tree id="48" weight="0.1">
		<split>
			<feature> 8 </feature>
			<threshold> 9.1774 </threshold>
			<split pos="left">
				<feature> 30 </feature>
				<threshold> 5.0 </threshold>
				<split pos="left">
					<output> 9.789334297180176 </output>
				</split>
				<split pos="right">
					<feature> 8 </feature>
					<threshold> 2.6992354 </threshold>
					<split pos="left">
						<feature> 14 </feature>
						<threshold> 0.0 </threshold>
						<split pos="left">
							<output> -47.553871154785156 </output>
						</split>
						<split pos="right">
							<output> 0.06864503026008606 </output>
						</split>
					</split>
					<split pos="right">
						<feature> 35 </feature>
						<threshold> 24.0 </threshold>
						<split pos="left">
							<output> 18.238311767578125 </output>
						</split>
						<split pos="right">
							<feature> 45 </feature>
							<threshold> 2.0 </threshold>
							<split pos="left">
								<output> -4.479215145111084 </output>
							</split>
							<split pos="right">
								<feature> 34 </feature>
								<threshold> 2.0 </threshold>
								<split pos="left">
									<output> 6.490776062011719 </output>
								</split>
								<split pos="right">
									<feature> 37 </feature>
									<threshold> 46.0 </threshold>
									<split pos="left">
										<output> 3.6102709770202637 </output>
									</split>
									<split pos="right">
										<output> -2.0888454914093018 </output>
									</split>
								</split>
							</split>
						</split>
					</split>
				</split>
			</split>
			<split pos="right">
				<feature> 6 </feature>
				<threshold> 0.0 </threshold>
				<split pos="left">
					<output> 10.659743309020996 </output>
				</split>
				<split pos="right">
					<output> 115.4271469116211 </output>
				</split>
			</split>
		</split>
	</tree>
	<tree id="49" weight="0.1">
		<split>
			<feature> 6 </feature>
			<threshold> 0.09090909 </threshold>
			<split pos="left">
				<feature> 6 </feature>
				<threshold> 0.0 </threshold>
				<split pos="left">
					<feature> 8 </feature>
					<threshold> 4.3187766 </threshold>
					<split pos="left">
						<feature> 30 </feature>
						<threshold> 5.0 </threshold>
						<split pos="left">
							<output> 8.677396774291992 </output>
						</split>
						<split pos="right">
							<feature> 38 </feature>
							<threshold> 7.0 </threshold>
							<split pos="left">
								<output> 27.49228286743164 </output>
							</split>
							<split pos="right">
								<feature> 8 </feature>
								<threshold> 1.0796942 </threshold>
								<split pos="left">
									<output> -23.43814468383789 </output>
								</split>
								<split pos="right">
									<output> -1.2992627620697021 </output>
								</split>
							</split>
						</split>
					</split>
					<split pos="right">
						<feature> 7 </feature>
						<threshold> 2.6265 </threshold>
						<split pos="left">
							<feature> 28 </feature>
							<threshold> 13.0 </threshold>
							<split pos="left">
								<feature> 13 </feature>
								<threshold> 19.0 </threshold>
								<split pos="left">
									<output> 6.358460426330566 </output>
								</split>
								<split pos="right">
									<output> 92.17957305908203 </output>
								</split>
							</split>
							<split pos="right">
								<output> 35.19556427001953 </output>
							</split>
						</split>
						<split pos="right">
							<output> -0.9692334532737732 </output>
						</split>
					</split>
				</split>
				<split pos="right">
					<output> 496.1993408203125 </output>
				</split>
			</split>
			<split pos="right">
				<output> -60.57006072998047 </output>
			</split>
		</split>
	</tree>
	<tree id="50" weight="0.1">
		<split>
			<feature> 6 </feature>
			<threshold> 0.09090909 </threshold>
			<split pos="left">
				<feature> 6 </feature>
				<threshold> 0.0 </threshold>
				<split pos="left">
					<feature> 32 </feature>
					<threshold> 10.0 </threshold>
					<split pos="left">
						<output> 14.6162109375 </output>
					</split>
					<split pos="right">
						<feature> 1 </feature>
						<threshold> 1.0 </threshold>
						<split pos="left">
							<output> -2.7950572967529297 </output>
						</split>
						<split pos="right">
							<feature> 30 </feature>
							<threshold> 5.0 </threshold>
							<split pos="left">
								<output> 14.638671875 </output>
							</split>
							<split pos="right">
								<feature> 8 </feature>
								<threshold> 14.036026 </threshold>
								<split pos="left">
									<feature> 35 </feature>
									<threshold> 24.0 </threshold>
									<split pos="left">
										<output> 22.08195686340332 </output>
									</split>
									<split pos="right">
										<feature> 8 </feature>
										<threshold> 2.6992354 </threshold>
										<split pos="left">
											<output> -9.630919456481934 </output>
										</split>
										<split pos="right">
											<feature> 28 </feature>
											<threshold> 7.0 </threshold>
											<split pos="left">
												<output> 4.479728698730469 </output>
											</split>
											<split pos="right">
												<output> -0.38979846239089966 </output>
											</split>
										</split>
									</split>
								</split>
								<split pos="right">
									<output> 13.682294845581055 </output>
								</split>
							</split>
						</split>
					</split>
				</split>
				<split pos="right">
					<output> 446.57940673828125 </output>
				</split>
			</split>
			<split pos="right">
				<output> -54.51305389404297 </output>
			</split>
		</split>
	</tree>
	<tree id="51" weight="0.1">
		<split>
			<feature> 8 </feature>
			<threshold> 4.3187766 </threshold>
			<split pos="left">
				<feature> 30 </feature>
				<threshold> 5.0 </threshold>
				<split pos="left">
					<output> 7.057435989379883 </output>
				</split>
				<split pos="right">
					<feature> 38 </feature>
					<threshold> 7.0 </threshold>
					<split pos="left">
						<output> 23.64488410949707 </output>
					</split>
					<split pos="right">
						<feature> 20 </feature>
						<threshold> 2.0 </threshold>
						<split pos="left">
							<output> -14.231579780578613 </output>
						</split>
						<split pos="right">
							<output> -0.5075654983520508 </output>
						</split>
					</split>
				</split>
			</split>
			<split pos="right">
				<feature> 6 </feature>
				<threshold> 0.0 </threshold>
				<split pos="left">
					<feature> 7 </feature>
					<threshold> 2.6265 </threshold>
					<split pos="left">
						<feature> 28 </feature>
						<threshold> 13.0 </threshold>
						<split pos="left">
							<feature> 13 </feature>
							<threshold> 19.0 </threshold>
							<split pos="left">
								<feature> 34 </feature>
								<threshold> 12.0 </threshold>
								<split pos="left">
									<output> 5.641302108764648 </output>
								</split>
								<split pos="right">
									<output> -15.793614387512207 </output>
								</split>
							</split>
							<split pos="right">
								<output> 82.05351257324219 </output>
							</split>
						</split>
						<split pos="right">
							<output> 31.055356979370117 </output>
						</split>
					</split>
					<split pos="right">
						<output> -0.8234893083572388 </output>
					</split>
				</split>
				<split pos="right">
					<output> 61.78629684448242 </output>
				</split>
			</split>
		</split>
	</tree>
	<tree id="52" weight="0.1">
		<split>
			<feature> 6 </feature>
			<threshold> 0.09090909 </threshold>
			<split pos="left">
				<feature> 6 </feature>
				<threshold> 0.0 </threshold>
				<split pos="left">
					<feature> 37 </feature>
					<threshold> 9.0 </threshold>
					<split pos="left">
						<output> 12.438852310180664 </output>
					</split>
					<split pos="right">
						<feature> 44 </feature>
						<threshold> 0.02 </threshold>
						<split pos="left">
							<feature> 1 </feature>
							<threshold> 1.0 </threshold>
							<split pos="left">
								<output> -4.8705291748046875 </output>
							</split>
							<split pos="right">
								<feature> 7 </feature>
								<threshold> 2.6265 </threshold>
								<split pos="left">
									<feature> 30 </feature>
									<threshold> 77.0 </threshold>
									<split pos="left">
										<feature> 37 </feature>
										<threshold> 62.0 </threshold>
										<split pos="left">
											<output> 6.48655366897583 </output>
										</split>
										<split pos="right">
											<output> -312.78131103515625 </output>
										</split>
									</split>
									<split pos="right">
										<output> 27.52681541442871 </output>
									</split>
								</split>
								<split pos="right">
									<output> -1.222344994544983 </output>
								</split>
							</split>
						</split>
						<split pos="right">
							<feature> 44 </feature>
							<threshold> 0.04 </threshold>
							<split pos="left">
								<output> -4.829225063323975 </output>
							</split>
							<split pos="right">
								<output> 1.3087600469589233 </output>
							</split>
						</split>
					</split>
				</split>
				<split pos="right">
					<output> 395.7428283691406 </output>
				</split>
			</split>
			<split pos="right">
				<output> -53.68303298950195 </output>
			</split>
		</split>
	</tree>
	<tree id="53" weight="0.1">
		<split>
			<feature> 6 </feature>
			<threshold> 0.09090909 </threshold>
			<split pos="left">
				<feature> 6 </feature>
				<threshold> 0.0 </threshold>
				<split pos="left">
					<feature> 8 </feature>
					<threshold> 4.3187766 </threshold>
					<split pos="left">
						<feature> 32 </feature>
						<threshold> 9.0 </threshold>
						<split pos="left">
							<output> 80.18650817871094 </output>
						</split>
						<split pos="right">
							<feature> 8 </feature>
							<threshold> 1.0796942 </threshold>
							<split pos="left">
								<output> -10.306140899658203 </output>
							</split>
							<split pos="right">
								<output> 0.2896583080291748 </output>
							</split>
						</split>
					</split>
					<split pos="right">
						<feature> 7 </feature>
						<threshold> 2.6265 </threshold>
						<split pos="left">
							<feature> 20 </feature>
							<threshold> 16.0 </threshold>
							<split pos="left">
								<feature> 13 </feature>
								<threshold> 19.0 </threshold>
								<split pos="left">
									<feature> 34 </feature>
									<threshold> 12.0 </threshold>
									<split pos="left">
										<output> 4.686138153076172 </output>
									</split>
									<split pos="right">
										<output> -14.345126152038574 </output>
									</split>
								</split>
								<split pos="right">
									<output> 73.19950103759766 </output>
								</split>
							</split>
							<split pos="right">
								<output> 25.59164047241211 </output>
							</split>
						</split>
						<split pos="right">
							<output> -0.5549973845481873 </output>
						</split>
					</split>
				</split>
				<split pos="right">
					<output> 356.1685485839844 </output>
				</split>
			</split>
			<split pos="right">
				<output> -48.314727783203125 </output>
			</split>
		</split>
	</tree>
	<tree id="54" weight="0.1">
		<split>
			<feature> 6 </feature>
			<threshold> 0.09090909 </threshold>
			<split pos="left">
				<feature> 6 </feature>
				<threshold> 0.0 </threshold>
				<split pos="left">
					<feature> 38 </feature>
					<threshold> 2.0 </threshold>
					<split pos="left">
						<output> 9.424310684204102 </output>
					</split>
					<split pos="right">
						<feature> 20 </feature>
						<threshold> 1.0 </threshold>
						<split pos="left">
							<output> -5.548130989074707 </output>
						</split>
						<split pos="right">
							<feature> 30 </feature>
							<threshold> 5.0 </threshold>
							<split pos="left">
								<output> 11.66611099243164 </output>
							</split>
							<split pos="right">
								<feature> 8 </feature>
								<threshold> 2.6992354 </threshold>
								<split pos="left">
									<output> -10.444506645202637 </output>
								</split>
								<split pos="right">
									<feature> 18 </feature>
									<threshold> 2.0 </threshold>
									<split pos="left">
										<feature> 14 </feature>
										<threshold> 3.0 </threshold>
